#include <math.h>
#include <string.h>
double sigmoid(double x) {
    if (x < 0.0) {
        double z = exp(x);
        return z / (1.0 + z);
    }
    return 1.0 / (1.0 + exp(-x));
}
void score(double * input, double * output) {
    double var0;
    if (input[774] >= 0.096191406) {
        if (input[1019] >= 0.00075288315) {
            if (input[83] >= 0.036621094) {
                if (input[770] >= 0.060058594) {
                    if (input[49] >= 0.3569336) {
                        var0 = 0.15;
                    } else {
                        if (input[74] >= 0.10888672) {
                            var0 = 0.15;
                        } else {
                            var0 = 0.5905883;
                        }
                    }
                } else {
                    var0 = 0.16363637;
                }
            } else {
                if (input[696] >= 0.09716797) {
                    var0 = 0.41538465;
                } else {
                    var0 = -0.36;
                }
            }
        } else {
            if (input[69] >= 0.20214844) {
                var0 = -0.5314286;
            } else {
                var0 = 0.24000001;
            }
        }
    } else {
        if (input[2024] >= 0.033174347) {
            if (input[1957] >= 0.006093481) {
                if (input[7] >= 0.24560547) {
                    var0 = -0.51111114;
                } else {
                    var0 = 0.0;
                }
            } else {
                if (input[902] >= 0.029785156) {
                    if (input[12] >= 0.19482422) {
                        var0 = 0.5827338;
                    } else {
                        var0 = 0.15;
                    }
                } else {
                    var0 = -0.06666667;
                }
            }
        } else {
            if (input[770] >= 0.10498047) {
                if (input[596] >= 0.07714844) {
                    var0 = 0.5612903;
                } else {
                    if (input[1663] >= 0.09865054) {
                        var0 = -0.41538465;
                    } else {
                        var0 = 0.3818182;
                    }
                }
            } else {
                if (input[2132] >= 0.055047702) {
                    if (input[1795] >= 0.02673466) {
                        if (input[1] >= 0.28466797) {
                            var0 = 0.0;
                        } else {
                            var0 = -0.33333337;
                        }
                    } else {
                        var0 = 0.54545456;
                    }
                } else {
                    if (input[2660] >= 0.018225621) {
                        if (input[776] >= 0.103027344) {
                            if (input[72] >= 0.083984375) {
                                var0 = -0.15;
                            } else {
                                var0 = 0.504;
                            }
                        } else {
                            if (input[2044] >= 0.04598818) {
                                var0 = 0.43636367;
                            } else {
                                if (input[768] >= 0.10595703) {
                                    if (input[1127] >= 0.07689692) {
                                        var0 = 0.41052634;
                                    } else {
                                        if (input[2] >= 0.2553711) {
                                            var0 = -0.40000004;
                                        } else {
                                            var0 = 0.0;
                                        }
                                    }
                                } else {
                                    if (input[1999] >= 0.027855128) {
                                        if (input[4] >= 0.29345703) {
                                            var0 = 0.0;
                                        } else {
                                            var0 = 0.3818182;
                                        }
                                    } else {
                                        if (input[446] >= 0.041015625) {
                                            if (input[2594] >= 0.017283648) {
                                                if (input[780] >= 0.10888672) {
                                                    if (input[30] >= 0.2578125) {
                                                        var0 = 0.36;
                                                    } else {
                                                        var0 = -0.15;
                                                    }
                                                } else {
                                                    if (input[527] >= 0.040527344) {
                                                        if (input[328] >= 0.15185547) {
                                                            if (input[68] >= 0.2421875) {
                                                                var0 = -0.3;
                                                            } else {
                                                                var0 = 0.36;
                                                            }
                                                        } else {
                                                            if (input[630] >= 0.041015625) {
                                                                if (input[1620] >= 0.04177114) {
                                                                    if (input[2242] >= 0.07010913) {
                                                                        var0 = 0.20000002;
                                                                    } else {
                                                                        if (input[2324] >= 0.013617938) {
                                                                            if (input[117] >= 0.140625) {
                                                                                var0 = 0.05454546;
                                                                            } else {
                                                                                if (input[344] >= 0.1586914) {
                                                                                    var0 = 0.15;
                                                                                } else {
                                                                                    var0 = -0.5876906;
                                                                                }
                                                                            }
                                                                        } else {
                                                                            var0 = 0.20000002;
                                                                        }
                                                                    }
                                                                } else {
                                                                    var0 = 0.3;
                                                                }
                                                            } else {
                                                                var0 = 0.3;
                                                            }
                                                        }
                                                    } else {
                                                        var0 = 0.33333337;
                                                    }
                                                }
                                            } else {
                                                if (input[1086] >= 0.04424049) {
                                                    var0 = 0.45000002;
                                                } else {
                                                    var0 = -0.4666667;
                                                }
                                            }
                                        } else {
                                            var0 = 0.3;
                                        }
                                    }
                                }
                            }
                        }
                    } else {
                        if (input[1754] >= 0.00029547562) {
                            if (input[1021] >= 0.02937429) {
                                if (input[137] >= 0.075683594) {
                                    var0 = -0.45000002;
                                } else {
                                    var0 = 0.15;
                                }
                            } else {
                                if (input[1783] >= 0.00015345271) {
                                    if (input[190] >= 0.14111328) {
                                        var0 = 0.0;
                                    } else {
                                        if (input[5] >= 0.3173828) {
                                            var0 = 0.15;
                                        } else {
                                            var0 = 0.5707317;
                                        }
                                    }
                                } else {
                                    var0 = -0.3;
                                }
                            }
                        } else {
                            if (input[2173] >= 0.010702447) {
                                if (input[1106] >= 0.08343582) {
                                    var0 = 0.3;
                                } else {
                                    if (input[88] >= 0.07080078) {
                                        var0 = -0.15;
                                    } else {
                                        var0 = -0.5850932;
                                    }
                                }
                            } else {
                                var0 = 0.3;
                            }
                        }
                    }
                }
            }
        }
    }
    double var1;
    if (input[774] >= 0.095214844) {
        if (input[1019] >= 0.00075288315) {
            if (input[771] >= 0.06640625) {
                if (input[836] >= 0.2553711) {
                    if (input[34] >= 0.28027344) {
                        var1 = -0.19242279;
                    } else {
                        var1 = 0.33812344;
                    }
                } else {
                    var1 = 0.46175084;
                }
            } else {
                if (input[2369] >= 0.031907294) {
                    var1 = 0.37238747;
                } else {
                    if (input[231] >= 0.09423828) {
                        var1 = -0.3461823;
                    } else {
                        var1 = -0.050157584;
                    }
                }
            }
        } else {
            if (input[2299] >= 0.00005314794) {
                var1 = -0.42687815;
            } else {
                var1 = 0.2228411;
            }
        }
    } else {
        if (input[2083] >= 0.046175443) {
            if (input[2790] >= 0.002059319) {
                if (input[1068] >= 0.08784305) {
                    var1 = 0.3048904;
                } else {
                    var1 = -0.37150288;
                }
            } else {
                if (input[56] >= 0.16552734) {
                    if (input[4] >= 0.33691406) {
                        var1 = 0.1501964;
                    } else {
                        var1 = 0.47730398;
                    }
                } else {
                    var1 = -0.29071164;
                }
            }
        } else {
            if (input[770] >= 0.10107422) {
                if (input[72] >= 0.21044922) {
                    var1 = -0.3560741;
                } else {
                    if (input[597] >= 0.075683594) {
                        if (input[359] >= 0.07080078) {
                            var1 = 0.46300626;
                        } else {
                            var1 = 0.14448018;
                        }
                    } else {
                        if (input[88] >= 0.052246094) {
                            var1 = 0.2796564;
                        } else {
                            var1 = -0.31800336;
                        }
                    }
                }
            } else {
                if (input[2067] >= 0.043950517) {
                    if (input[1829] >= 0.002321181) {
                        if (input[1762] >= 0.099364415) {
                            var1 = 0.2925445;
                        } else {
                            var1 = -0.37576044;
                        }
                    } else {
                        var1 = 0.44286695;
                    }
                } else {
                    if (input[2659] >= 0.017723007) {
                        if (input[2124] >= 0.053140104) {
                            if (input[880] >= 0.060546875) {
                                var1 = 0.43782076;
                            } else {
                                var1 = -0.25994378;
                            }
                        } else {
                            if (input[776] >= 0.103027344) {
                                if (input[892] >= 0.26904297) {
                                    var1 = -0.09046438;
                                } else {
                                    var1 = 0.36851;
                                }
                            } else {
                                if (input[2053] >= 0.04564721) {
                                    if (input[25] >= 0.26953125) {
                                        var1 = 0.31629276;
                                    } else {
                                        var1 = 0.04775176;
                                    }
                                } else {
                                    if (input[2418] >= 0.015599235) {
                                        if (input[768] >= 0.107910156) {
                                            if (input[418] >= 0.080078125) {
                                                var1 = 0.32429522;
                                            } else {
                                                var1 = -0.320505;
                                            }
                                        } else {
                                            if (input[761] >= 0.038085938) {
                                                if (input[2036] >= 0.038204946) {
                                                    if (input[1023] >= 0.025261912) {
                                                        var1 = -0.38799855;
                                                    } else {
                                                        if (input[1020] >= 0.0314776) {
                                                            var1 = 0.05033801;
                                                        } else {
                                                            var1 = 0.41212955;
                                                        }
                                                    }
                                                } else {
                                                    if (input[2551] >= 0.013222078) {
                                                        if (input[446] >= 0.041503906) {
                                                            if (input[766] >= 0.12695312) {
                                                                var1 = 0.1515306;
                                                            } else {
                                                                if (input[506] >= 0.15771484) {
                                                                    var1 = 0.12742206;
                                                                } else {
                                                                    if (input[1103] >= 0.21313824) {
                                                                        var1 = 0.07709737;
                                                                    } else {
                                                                        if (input[666] >= 0.04248047) {
                                                                            if (input[1262] >= 0.2977736) {
                                                                                var1 = -0.0029017208;
                                                                            } else {
                                                                                if (input[344] >= 0.15527344) {
                                                                                    var1 = 0.0665176;
                                                                                } else {
                                                                                    var1 = -0.45953974;
                                                                                }
                                                                            }
                                                                        } else {
                                                                            var1 = 0.13015856;
                                                                        }
                                                                    }
                                                                }
                                                            }
                                                        } else {
                                                            var1 = 0.18208666;
                                                        }
                                                    } else {
                                                        var1 = 0.26189294;
                                                    }
                                                }
                                            } else {
                                                if (input[667] >= 0.057617188) {
                                                    var1 = -0.04566652;
                                                } else {
                                                    var1 = 0.31476668;
                                                }
                                            }
                                        }
                                    } else {
                                        if (input[1074] >= 0.029758457) {
                                            var1 = 0.3962389;
                                        } else {
                                            var1 = -0.3189572;
                                        }
                                    }
                                }
                            }
                        }
                    } else {
                        if (input[1762] >= 0.00023561451) {
                            if (input[1020] >= 0.031663142) {
                                if (input[94] >= 0.08203125) {
                                    var1 = 0.2902117;
                                } else {
                                    var1 = -0.3335468;
                                }
                            } else {
                                if (input[840] >= 0.2553711) {
                                    var1 = -0.17287356;
                                } else {
                                    var1 = 0.45581615;
                                }
                            }
                        } else {
                            if (input[1585] >= 0.028400896) {
                                if (input[1009] >= 0.00012248915) {
                                    var1 = -0.45774233;
                                } else {
                                    var1 = -0.039652117;
                                }
                            } else {
                                var1 = 0.30731633;
                            }
                        }
                    }
                }
            }
        }
    }
    double var2;
    if (input[766] >= 0.096191406) {
        if (input[1018] >= 0.00020212897) {
            if (input[821] >= 0.23144531) {
                if (input[1501] >= 0.00015604045) {
                    if (input[10] >= 0.25146484) {
                        var2 = -0.32155642;
                    } else {
                        var2 = -0.018751126;
                    }
                } else {
                    var2 = 0.30007833;
                }
            } else {
                if (input[1969] >= 0.011218404) {
                    if (input[1101] >= 0.067478485) {
                        var2 = 0.3065383;
                    } else {
                        var2 = -0.26661515;
                    }
                } else {
                    if (input[338] >= 0.072753906) {
                        if (input[1014] >= 0.039168224) {
                            var2 = 0.059290957;
                        } else {
                            var2 = 0.4147719;
                        }
                    } else {
                        if (input[310] >= 0.07470703) {
                            var2 = 0.30643767;
                        } else {
                            var2 = -0.19725013;
                        }
                    }
                }
            }
        } else {
            if (input[17] >= 0.32763672) {
                var2 = -0.091128066;
            } else {
                var2 = -0.38673738;
            }
        }
    } else {
        if (input[2057] >= 0.043312296) {
            if (input[900] >= 0.036621094) {
                if (input[1005] >= 0.027854238) {
                    var2 = -0.21765548;
                } else {
                    if (input[49] >= 0.34423828) {
                        var2 = 0.08339343;
                    } else {
                        var2 = 0.4089844;
                    }
                }
            } else {
                if (input[0] >= 0.14013672) {
                    var2 = 0.065954044;
                } else {
                    var2 = -0.23252091;
                }
            }
        } else {
            if (input[1050] >= 0.08905468) {
                if (input[62] >= 0.10595703) {
                    if (input[1197] >= 0.10301294) {
                        var2 = 0.38857692;
                    } else {
                        if (input[1061] >= 0.06970166) {
                            var2 = 0.24598171;
                        } else {
                            var2 = -0.1451536;
                        }
                    }
                } else {
                    var2 = -0.14938492;
                }
            } else {
                if (input[770] >= 0.100097656) {
                    if (input[1965] >= 0.000060542407) {
                        if (input[693] >= 0.07861328) {
                            var2 = 0.38581294;
                        } else {
                            var2 = -0.055366844;
                        }
                    } else {
                        if (input[481] >= 0.061523438) {
                            if (input[1839] >= 0.00017746969) {
                                var2 = -0.052466642;
                            } else {
                                var2 = -0.34935224;
                            }
                        } else {
                            var2 = 0.21263036;
                        }
                    }
                } else {
                    if (input[2660] >= 0.017833449) {
                        if (input[772] >= 0.103027344) {
                            if (input[1065] >= 0.042563446) {
                                var2 = 0.3672128;
                            } else {
                                var2 = -0.15263858;
                            }
                        } else {
                            if (input[2124] >= 0.053197347) {
                                if (input[886] >= 0.0546875) {
                                    var2 = 0.36485422;
                                } else {
                                    if (input[3] >= 0.28222656) {
                                        var2 = -0.21947564;
                                    } else {
                                        var2 = -0.03993018;
                                    }
                                }
                            } else {
                                if (input[2534] >= 0.014258124) {
                                    if (input[2105] >= 0.056620568) {
                                        if (input[310] >= 0.071777344) {
                                            var2 = 0.053444702;
                                        } else {
                                            var2 = 0.32649368;
                                        }
                                    } else {
                                        if (input[774] >= 0.106933594) {
                                            var2 = 0.20404294;
                                        } else {
                                            if (input[2122] >= 0.05373617) {
                                                if (input[382] >= 0.08154297) {
                                                    var2 = 0.2656817;
                                                } else {
                                                    var2 = -0.0983371;
                                                }
                                            } else {
                                                if (input[2551] >= 0.0131984595) {
                                                    if (input[590] >= 0.04638672) {
                                                        if (input[776] >= 0.107910156) {
                                                            var2 = 0.12605843;
                                                        } else {
                                                            if (input[243] >= 0.041992188) {
                                                                if (input[747] >= 0.040039062) {
                                                                    if (input[2471] >= 0.014188751) {
                                                                        if (input[2112] >= 0.0529835) {
                                                                            if (input[762] >= 0.07470703) {
                                                                                var2 = 0.28105313;
                                                                            } else {
                                                                                var2 = -0.26699618;
                                                                            }
                                                                        } else {
                                                                            if (input[344] >= 0.15527344) {
                                                                                var2 = 0.055587962;
                                                                            } else {
                                                                                if (input[604] >= 0.15185547) {
                                                                                    var2 = -0.0022054825;
                                                                                } else {
                                                                                    var2 = -0.39983067;
                                                                                }
                                                                            }
                                                                        }
                                                                    } else {
                                                                        var2 = 0.092423804;
                                                                    }
                                                                } else {
                                                                    var2 = 0.116146706;
                                                                }
                                                            } else {
                                                                if (input[0] >= 0.14111328) {
                                                                    var2 = -0.06378301;
                                                                } else {
                                                                    var2 = 0.13523099;
                                                                }
                                                            }
                                                        }
                                                    } else {
                                                        if (input[973] >= 0.00014141476) {
                                                            var2 = -0.2666355;
                                                        } else {
                                                            var2 = 0.3352784;
                                                        }
                                                    }
                                                } else {
                                                    var2 = 0.2303299;
                                                }
                                            }
                                        }
                                    }
                                } else {
                                    var2 = 0.35301638;
                                }
                            }
                        }
                    } else {
                        if (input[1769] >= 0.00022837694) {
                            if (input[1771] >= 0.01676244) {
                                var2 = -0.30204588;
                            } else {
                                if (input[1780] >= 0.00016466688) {
                                    var2 = 0.4030364;
                                } else {
                                    var2 = -0.1533667;
                                }
                            }
                        } else {
                            if (input[98] >= 0.07080078) {
                                if (input[83] >= 0.041503906) {
                                    var2 = 0.26251853;
                                } else {
                                    var2 = -0.024800824;
                                }
                            } else {
                                if (input[2669] >= 0.0027206717) {
                                    var2 = -0.40125284;
                                } else {
                                    var2 = 0.1475492;
                                }
                            }
                        }
                    }
                }
            }
        }
    }
    double var3;
    if (input[768] >= 0.10107422) {
        if (input[1018] >= 0.00023157192) {
            if (input[1760] >= 0.00023149501) {
                if (input[1824] >= 0.00013235142) {
                    if (input[759] >= 0.061035156) {
                        var3 = 0.37061456;
                    } else {
                        if (input[62] >= 0.25341797) {
                            var3 = 0.003036619;
                        } else {
                            var3 = 0.19820097;
                        }
                    }
                } else {
                    var3 = 0.01764176;
                }
            } else {
                if (input[1102] >= 0.00015148295) {
                    if (input[2835] >= 0.000050937153) {
                        var3 = -0.3094523;
                    } else {
                        var3 = 0.04980452;
                    }
                } else {
                    var3 = 0.3016453;
                }
            }
        } else {
            if (input[1008] >= 0.00013937586) {
                var3 = -0.30061543;
            } else {
                var3 = -0.07571033;
            }
        }
    } else {
        if (input[2010] >= 0.026265008) {
            if (input[1010] >= 0.0054804664) {
                if (input[879] >= 0.079589844) {
                    var3 = 0.269919;
                } else {
                    var3 = -0.3378545;
                }
            } else {
                if (input[1065] >= 0.063244544) {
                    var3 = 0.37522784;
                } else {
                    if (input[1800] >= 0.0069289505) {
                        if (input[2] >= 0.25439453) {
                            var3 = -0.25325245;
                        } else {
                            var3 = -0.03346077;
                        }
                    } else {
                        var3 = 0.30999032;
                    }
                }
            }
        } else {
            if (input[766] >= 0.10498047) {
                if (input[1018] >= 0.00019146653) {
                    if (input[1969] >= 0.010319317) {
                        var3 = -0.013520178;
                    } else {
                        var3 = 0.35789734;
                    }
                } else {
                    var3 = -0.30050915;
                }
            } else {
                if (input[2098] >= 0.050249018) {
                    if (input[890] >= 0.061035156) {
                        var3 = 0.36851704;
                    } else {
                        if (input[856] >= 0.049316406) {
                            var3 = -0.2651622;
                        } else {
                            var3 = 0.14418831;
                        }
                    }
                } else {
                    if (input[2660] >= 0.0189731) {
                        if (input[2068] >= 0.048377827) {
                            if (input[1005] >= 0.00016779362) {
                                var3 = -0.058389056;
                            } else {
                                var3 = 0.319556;
                            }
                        } else {
                            if (input[770] >= 0.100097656) {
                                if (input[256] >= 0.09667969) {
                                    var3 = 0.32066157;
                                } else {
                                    if (input[800] >= 0.040527344) {
                                        var3 = -0.32371596;
                                    } else {
                                        var3 = 0.13131906;
                                    }
                                }
                            } else {
                                if (input[2112] >= 0.05706668) {
                                    var3 = 0.25934654;
                                } else {
                                    if (input[2465] >= 0.014183553) {
                                        if (input[392] >= 0.044433594) {
                                            if (input[300] >= 0.14697266) {
                                                var3 = 0.1187189;
                                            } else {
                                                if (input[343] >= 0.1484375) {
                                                    if (input[264] >= 0.11816406) {
                                                        var3 = 0.33371016;
                                                    } else {
                                                        var3 = -0.21688835;
                                                    }
                                                } else {
                                                    if (input[447] >= 0.04345703) {
                                                        if (input[2107] >= 0.049055774) {
                                                            if (input[864] >= 0.07128906) {
                                                                var3 = 0.23981084;
                                                            } else {
                                                                var3 = -0.27024424;
                                                            }
                                                        } else {
                                                            if (input[784] >= 0.107910156) {
                                                                if (input[102] >= 0.07128906) {
                                                                    var3 = 0.26231351;
                                                                } else {
                                                                    var3 = -0.21676864;
                                                                }
                                                            } else {
                                                                if (input[455] >= 0.14990234) {
                                                                    var3 = 0.092929214;
                                                                } else {
                                                                    if (input[748] >= 0.04345703) {
                                                                        if (input[411] >= 0.15429688) {
                                                                            var3 = 0.08619055;
                                                                        } else {
                                                                            if (input[463] >= 0.1538086) {
                                                                                var3 = 0.06330663;
                                                                            } else {
                                                                                if (input[590] >= 0.04638672) {
                                                                                    var3 = -0.3667777;
                                                                                } else {
                                                                                    var3 = -0.03813464;
                                                                                }
                                                                            }
                                                                        }
                                                                    } else {
                                                                        if (input[144] >= 0.060546875) {
                                                                            var3 = -0.19235308;
                                                                        } else {
                                                                            var3 = 0.2069988;
                                                                        }
                                                                    }
                                                                }
                                                            }
                                                        }
                                                    } else {
                                                        var3 = 0.16260754;
                                                    }
                                                }
                                            }
                                        } else {
                                            if (input[207] >= 0.067871094) {
                                                var3 = -0.19235308;
                                            } else {
                                                var3 = 0.35961992;
                                            }
                                        }
                                    } else {
                                        if (input[80] >= 0.044433594) {
                                            var3 = -0.006567937;
                                        } else {
                                            var3 = 0.27277842;
                                        }
                                    }
                                }
                            }
                        }
                    } else {
                        if (input[1757] >= 0.00027754495) {
                            if (input[1784] >= 0.0034011693) {
                                var3 = -0.27811283;
                            } else {
                                if (input[836] >= 0.25390625) {
                                    var3 = -0.07313872;
                                } else {
                                    var3 = 0.3658407;
                                }
                            }
                        } else {
                            if (input[2239] >= 0.011601148) {
                                if (input[1759] >= 0.00027421088) {
                                    var3 = 0.037721083;
                                } else {
                                    var3 = -0.364147;
                                }
                            } else {
                                var3 = 0.22475868;
                            }
                        }
                    }
                }
            }
        }
    }
    double var4;
    if (input[771] >= 0.091308594) {
        if (input[1019] >= 0.002513179) {
            if (input[329] >= 0.076660156) {
                if (input[767] >= 0.064941406) {
                    if (input[771] >= 0.092285156) {
                        var4 = 0.3529464;
                    } else {
                        var4 = 0.10212559;
                    }
                } else {
                    if (input[1140] >= 0.096096784) {
                        var4 = 0.20431724;
                    } else {
                        var4 = -0.12375969;
                    }
                }
            } else {
                if (input[1105] >= 0.06631221) {
                    if (input[387] >= 0.072753906) {
                        var4 = 0.27888027;
                    } else {
                        var4 = -0.0041778176;
                    }
                } else {
                    if (input[129] >= 0.06298828) {
                        var4 = -0.25753728;
                    } else {
                        var4 = 0.056644596;
                    }
                }
            }
        } else {
            if (input[69] >= 0.20214844) {
                if (input[906] >= 0.17675781) {
                    var4 = -0.32264146;
                } else {
                    var4 = -0.057684977;
                }
            } else {
                var4 = 0.18688335;
            }
        }
    } else {
        if (input[2083] >= 0.046175443) {
            if (input[2790] >= 0.002059319) {
                if (input[1068] >= 0.08784305) {
                    var4 = 0.20398508;
                } else {
                    var4 = -0.24359432;
                }
            } else {
                if (input[56] >= 0.16552734) {
                    var4 = 0.3460197;
                } else {
                    var4 = -0.18269257;
                }
            }
        } else {
            if (input[2031] >= 0.037450872) {
                if (input[1009] >= 0.00017377599) {
                    if (input[938] >= 0.27490234) {
                        var4 = -0.21977675;
                    } else {
                        var4 = -0.023534544;
                    }
                } else {
                    if (input[1010] >= 0.00016439019) {
                        var4 = 0.09394751;
                    } else {
                        var4 = 0.33064938;
                    }
                }
            } else {
                if (input[2661] >= 0.017913198) {
                    if (input[769] >= 0.10986328) {
                        if (input[1017] >= 0.00032212227) {
                            var4 = 0.2693102;
                        } else {
                            var4 = -0.14907528;
                        }
                    } else {
                        if (input[2109] >= 0.0543014) {
                            if (input[854] >= 0.06542969) {
                                var4 = 0.26490545;
                            } else {
                                var4 = 0.049743775;
                            }
                        } else {
                            if (input[776] >= 0.103027344) {
                                if (input[164] >= 0.09814453) {
                                    var4 = 0.25213173;
                                } else {
                                    var4 = 0.006325312;
                                }
                            } else {
                                if (input[2628] >= 0.017020054) {
                                    if (input[2410] >= 0.014458302) {
                                        if (input[2105] >= 0.056316182) {
                                            if (input[71] >= 0.068847656) {
                                                var4 = -0.03354483;
                                            } else {
                                                var4 = 0.24735558;
                                            }
                                        } else {
                                            if (input[126] >= 0.13623047) {
                                                if (input[334] >= 0.10986328) {
                                                    var4 = 0.29975253;
                                                } else {
                                                    var4 = -0.115538105;
                                                }
                                            } else {
                                                if (input[2122] >= 0.05379322) {
                                                    var4 = 0.10551995;
                                                } else {
                                                    if (input[890] >= 0.021972656) {
                                                        if (input[2481] >= 0.015955465) {
                                                            if (input[482] >= 0.044433594) {
                                                                if (input[774] >= 0.100097656) {
                                                                    if (input[71] >= 0.07519531) {
                                                                        var4 = -0.20935844;
                                                                    } else {
                                                                        var4 = 0.21863802;
                                                                    }
                                                                } else {
                                                                    if (input[344] >= 0.15283203) {
                                                                        var4 = 0.10827202;
                                                                    } else {
                                                                        if (input[179] >= 0.041992188) {
                                                                            if (input[667] >= 0.1616211) {
                                                                                var4 = 0.066891745;
                                                                            } else {
                                                                                if (input[880] >= 0.021972656) {
                                                                                    var4 = -0.34175223;
                                                                                } else {
                                                                                    var4 = 0.04474187;
                                                                                }
                                                                            }
                                                                        } else {
                                                                            var4 = 0.041943703;
                                                                        }
                                                                    }
                                                                }
                                                            } else {
                                                                var4 = 0.061635423;
                                                            }
                                                        } else {
                                                            var4 = 0.094202496;
                                                        }
                                                    } else {
                                                        var4 = 0.15707728;
                                                    }
                                                }
                                            }
                                        }
                                    } else {
                                        var4 = 0.28216654;
                                    }
                                } else {
                                    if (input[1219] >= 0.08298604) {
                                        var4 = 0.2596691;
                                    } else {
                                        var4 = -0.048448477;
                                    }
                                }
                            }
                        }
                    }
                } else {
                    if (input[1759] >= 0.00025355667) {
                        if (input[1973] >= 0.007446409) {
                            if (input[2165] >= 0.030618656) {
                                var4 = 0.18080923;
                            } else {
                                var4 = -0.24199007;
                            }
                        } else {
                            if (input[1749] >= 0.00030306843) {
                                var4 = 0.3604321;
                            } else {
                                var4 = 0.00025796136;
                            }
                        }
                    } else {
                        if (input[2368] >= 0.010948008) {
                            if (input[1720] >= 0.010755495) {
                                var4 = -0.33603725;
                            } else {
                                var4 = 0.0073186136;
                            }
                        } else {
                            var4 = 0.22491097;
                        }
                    }
                }
            }
        }
    }
    double var5;
    if (input[766] >= 0.096191406) {
        if (input[1018] >= 0.00020212897) {
            if (input[823] >= 0.29638672) {
                var5 = -0.16316336;
            } else {
                if (input[771] >= 0.06982422) {
                    if (input[845] >= 0.3100586) {
                        var5 = 0.011673529;
                    } else {
                        if (input[380] >= 0.06933594) {
                            if (input[767] >= 0.072753906) {
                                var5 = 0.3393491;
                            } else {
                                var5 = 0.06768721;
                            }
                        } else {
                            var5 = 0.022269633;
                        }
                    }
                } else {
                    if (input[902] >= 0.26367188) {
                        if (input[985] >= 0.00014338606) {
                            var5 = -0.21835698;
                        } else {
                            var5 = 0.07166911;
                        }
                    } else {
                        if (input[1008] >= 0.00015252143) {
                            var5 = 0.023677373;
                        } else {
                            var5 = 0.25822288;
                        }
                    }
                }
            }
        } else {
            if (input[320] >= 0.06689453) {
                var5 = -0.3001389;
            } else {
                var5 = -0.0710147;
            }
        }
    } else {
        if (input[2010] >= 0.025444642) {
            if (input[2760] >= 0.0029195952) {
                if (input[2709] >= 0.02835281) {
                    var5 = 0.266757;
                } else {
                    if (input[2040] >= 0.041932173) {
                        var5 = 0.097449824;
                    } else {
                        var5 = -0.30854976;
                    }
                }
            } else {
                if (input[1964] >= 0.014598273) {
                    var5 = 0.04079725;
                } else {
                    var5 = 0.34697035;
                }
            }
        } else {
            if (input[1017] >= 0.00028495368) {
                if (input[761] >= 0.09423828) {
                    if (input[1969] >= 0.010193048) {
                        if (input[581] >= 0.107910156) {
                            var5 = -0.04505741;
                        } else {
                            var5 = -0.24987778;
                        }
                    } else {
                        if (input[2722] >= 0.00007457315) {
                            if (input[1974] >= 0.008930577) {
                                var5 = -0.023877902;
                            } else {
                                var5 = 0.35386783;
                            }
                        } else {
                            var5 = -0.20040722;
                        }
                    }
                } else {
                    if (input[2139] >= 0.050558962) {
                        if (input[2804] >= 0.0001243035) {
                            var5 = -0.14215364;
                        } else {
                            var5 = 0.31405544;
                        }
                    } else {
                        if (input[2588] >= 0.017891843) {
                            if (input[783] >= 0.08544922) {
                                if (input[298] >= 0.10107422) {
                                    if (input[1001] >= 0.0001480165) {
                                        var5 = 0.012582754;
                                    } else {
                                        var5 = 0.4018762;
                                    }
                                } else {
                                    if (input[2074] >= 0.032676864) {
                                        var5 = 0.16723756;
                                    } else {
                                        if (input[2481] >= 0.026346367) {
                                            var5 = -0.26490682;
                                        } else {
                                            var5 = -0.050757173;
                                        }
                                    }
                                }
                            } else {
                                if (input[707] >= 0.045410156) {
                                    if (input[325] >= 0.04638672) {
                                        if (input[2107] >= 0.04874575) {
                                            if (input[1168] >= 0.096044846) {
                                                var5 = 0.28928864;
                                            } else {
                                                var5 = -0.15447178;
                                            }
                                        } else {
                                            if (input[624] >= 0.1381836) {
                                                if (input[1776] >= 0.013071364) {
                                                    var5 = -0.2153532;
                                                } else {
                                                    var5 = 0.2668264;
                                                }
                                            } else {
                                                if (input[2534] >= 0.014264934) {
                                                    if (input[447] >= 0.045410156) {
                                                        if (input[743] >= 0.14013672) {
                                                            if (input[1787] >= 0.008710376) {
                                                                var5 = -0.16930822;
                                                            } else {
                                                                var5 = 0.24444363;
                                                            }
                                                        } else {
                                                            if (input[2687] >= 0.043220624) {
                                                                var5 = 0.06268612;
                                                            } else {
                                                                if (input[2458] >= 0.016013466) {
                                                                    if (input[2372] >= 0.015757367) {
                                                                        if (input[774] >= 0.09716797) {
                                                                            var5 = -0.007283599;
                                                                        } else {
                                                                            if (input[2194] >= 0.064568326) {
                                                                                var5 = -0.028628265;
                                                                            } else {
                                                                                if (input[140] >= 0.14013672) {
                                                                                    var5 = -0.019989172;
                                                                                } else {
                                                                                    var5 = -0.33434215;
                                                                                }
                                                                            }
                                                                        }
                                                                    } else {
                                                                        var5 = 0.014774738;
                                                                    }
                                                                } else {
                                                                    var5 = 0.014692227;
                                                                }
                                                            }
                                                        }
                                                    } else {
                                                        var5 = 0.13443923;
                                                    }
                                                } else {
                                                    var5 = 0.18658134;
                                                }
                                            }
                                        }
                                    } else {
                                        if (input[498] >= 0.067871094) {
                                            var5 = -0.11942186;
                                        } else {
                                            var5 = 0.3692639;
                                        }
                                    }
                                } else {
                                    var5 = 0.28433058;
                                }
                            }
                        } else {
                            if (input[1758] >= 0.00023008205) {
                                var5 = 0.31495658;
                            } else {
                                var5 = -0.16121602;
                            }
                        }
                    }
                }
            } else {
                if (input[2349] >= 0.011605803) {
                    if (input[1141] >= 0.19899154) {
                        var5 = -0.01618577;
                    } else {
                        if (input[754] >= 0.1430664) {
                            var5 = -0.07777726;
                        } else {
                            if (input[545] >= 0.1484375) {
                                var5 = -0.09236829;
                            } else {
                                var5 = -0.33575085;
                            }
                        }
                    }
                } else {
                    var5 = 0.085325494;
                }
            }
        }
    }
    double var6;
    if (input[770] >= 0.09423828) {
        if (input[1967] >= 0.00006239572) {
            if (input[834] >= 0.2602539) {
                if (input[2773] >= 0.00005167217) {
                    var6 = -0.17769668;
                } else {
                    var6 = 0.15184328;
                }
            } else {
                if (input[767] >= 0.067871094) {
                    var6 = 0.3155037;
                } else {
                    if (input[1969] >= 0.009570632) {
                        var6 = -0.12576404;
                    } else {
                        if (input[477] >= 0.09082031) {
                            var6 = 0.25055826;
                        } else {
                            var6 = 0.014523298;
                        }
                    }
                }
            }
        } else {
            var6 = -0.2693686;
        }
    } else {
        if (input[2083] >= 0.044863075) {
            if (input[2792] >= 0.001046251) {
                if (input[1111] >= 0.11750327) {
                    var6 = 0.17983231;
                } else {
                    var6 = -0.21614592;
                }
            } else {
                if (input[1952] >= 0.00006209158) {
                    var6 = -0.098571345;
                } else {
                    var6 = 0.31524518;
                }
            }
        } else {
            if (input[1017] >= 0.0002850651) {
                if (input[763] >= 0.08935547) {
                    if (input[767] >= 0.07763672) {
                        if (input[876] >= 0.2475586) {
                            var6 = -0.08266606;
                        } else {
                            var6 = 0.3267147;
                        }
                    } else {
                        if (input[1132] >= 0.10695472) {
                            var6 = 0.17207605;
                        } else {
                            if (input[2122] >= 0.016698971) {
                                var6 = -0.23610882;
                            } else {
                                var6 = 0.05786849;
                            }
                        }
                    }
                } else {
                    if (input[1140] >= 0.14510593) {
                        if (input[1815] >= 0.009759379) {
                            if (input[2688] >= 0.035698757) {
                                var6 = 0.061307404;
                            } else {
                                var6 = -0.25126678;
                            }
                        } else {
                            if (input[1046] >= 0.03690601) {
                                if (input[1968] >= 0.012245427) {
                                    var6 = 0.094997466;
                                } else {
                                    var6 = 0.348035;
                                }
                            } else {
                                var6 = 0.022139227;
                            }
                        }
                    } else {
                        if (input[1639] >= 0.05417209) {
                            if (input[580] >= 0.04638672) {
                                if (input[765] >= 0.095214844) {
                                    if (input[967] >= 0.00014785309) {
                                        if (input[812] >= 0.056640625) {
                                            var6 = -0.18645348;
                                        } else {
                                            var6 = 0.0043476233;
                                        }
                                    } else {
                                        if (input[615] >= 0.067871094) {
                                            var6 = 0.2866276;
                                        } else {
                                            var6 = -0.005056907;
                                        }
                                    }
                                } else {
                                    if (input[2106] >= 0.046458527) {
                                        if (input[1971] >= 0.01015582) {
                                            var6 = -0.21590176;
                                        } else {
                                            if (input[2269] >= 0.04347434) {
                                                var6 = 0.29771438;
                                            } else {
                                                var6 = -0.016179573;
                                            }
                                        }
                                    } else {
                                        if (input[2534] >= 0.014264934) {
                                            if (input[2809] >= 0.00004607093) {
                                                if (input[333] >= 0.048339844) {
                                                    if (input[530] >= 0.14111328) {
                                                        var6 = 0.12597463;
                                                    } else {
                                                        if (input[2631] >= 0.017195515) {
                                                            if (input[2140] >= 0.05495736) {
                                                                var6 = 0.10342825;
                                                            } else {
                                                                if (input[444] >= 0.045410156) {
                                                                    if (input[79] >= 0.092285156) {
                                                                        var6 = -0.021263804;
                                                                    } else {
                                                                        if (input[345] >= 0.1430664) {
                                                                            var6 = -0.06984309;
                                                                        } else {
                                                                            if (input[2778] >= 0.00004558738) {
                                                                                var6 = -0.32632124;
                                                                            } else {
                                                                                var6 = -0.08008589;
                                                                            }
                                                                        }
                                                                    }
                                                                } else {
                                                                    var6 = 0.0535007;
                                                                }
                                                            }
                                                        } else {
                                                            var6 = 0.07725225;
                                                        }
                                                    }
                                                } else {
                                                    if (input[566] >= 0.06689453) {
                                                        var6 = -0.18213066;
                                                    } else {
                                                        var6 = 0.26410475;
                                                    }
                                                }
                                            } else {
                                                var6 = 0.14283267;
                                            }
                                        } else {
                                            var6 = 0.2081342;
                                        }
                                    }
                                }
                            } else {
                                var6 = 0.27635267;
                            }
                        } else {
                            if (input[1762] >= 0.00021413756) {
                                var6 = 0.30881035;
                            } else {
                                var6 = -0.17132409;
                            }
                        }
                    }
                }
            } else {
                if (input[2256] >= 0.012677075) {
                    if (input[2040] >= 0.04139601) {
                        var6 = 0.07360514;
                    } else {
                        if (input[418] >= 0.1459961) {
                            var6 = -0.033731766;
                        } else {
                            var6 = -0.3239668;
                        }
                    }
                } else {
                    var6 = 0.0981885;
                }
            }
        }
    }
    double var7;
    if (input[773] >= 0.09423828) {
        if (input[1019] >= 0.00087278924) {
            if (input[766] >= 0.07080078) {
                if (input[629] >= 0.07373047) {
                    var7 = 0.31182608;
                } else {
                    var7 = 0.0538263;
                }
            } else {
                if (input[1306] >= 0.17533554) {
                    var7 = 0.18290505;
                } else {
                    if (input[1463] >= 0.095003694) {
                        var7 = -0.032402895;
                    } else {
                        var7 = -0.16901274;
                    }
                }
            }
        } else {
            if (input[1789] >= 0.0001426745) {
                var7 = -0.25513625;
            } else {
                var7 = 0.10753675;
            }
        }
    } else {
        if (input[2067] >= 0.044812478) {
            if (input[1008] >= 0.00026383228) {
                var7 = 0.014705369;
            } else {
                if (input[1076] >= 0.065754525) {
                    var7 = 0.2943302;
                } else {
                    var7 = 0.066135734;
                }
            }
        } else {
            if (input[1967] >= 0.0004961768) {
                if (input[761] >= 0.095214844) {
                    if (input[1969] >= 0.009238953) {
                        if (input[1188] >= 0.115647204) {
                            var7 = 0.06463547;
                        } else {
                            var7 = -0.21499087;
                        }
                    } else {
                        if (input[2721] >= 0.00007021411) {
                            if (input[1946] >= 0.000058206944) {
                                var7 = 0.045607947;
                            } else {
                                var7 = 0.31717253;
                            }
                        } else {
                            var7 = -0.10540651;
                        }
                    }
                } else {
                    if (input[1102] >= 0.12518106) {
                        if (input[1004] >= 0.00016940714) {
                            var7 = -0.21205334;
                        } else {
                            if (input[1843] >= 0.0011843271) {
                                var7 = -0.08061605;
                            } else {
                                if (input[1698] >= 0.09611027) {
                                    var7 = 0.31659263;
                                } else {
                                    var7 = 0.032044824;
                                }
                            }
                        }
                    } else {
                        if (input[808] >= 0.044433594) {
                            if (input[2538] >= 0.018332776) {
                                if (input[2098] >= 0.04894048) {
                                    if (input[879] >= 0.053222656) {
                                        var7 = 0.22257249;
                                    } else {
                                        var7 = -0.08300147;
                                    }
                                } else {
                                    if (input[271] >= 0.13134766) {
                                        if (input[789] >= 0.072265625) {
                                            var7 = 0.26983872;
                                        } else {
                                            var7 = -0.18407547;
                                        }
                                    } else {
                                        if (input[616] >= 0.04736328) {
                                            if (input[951] >= 0.00012666) {
                                                if (input[45] >= 0.20214844) {
                                                    if (input[2485] >= 0.016924338) {
                                                        if (input[1698] >= 0.050372437) {
                                                            if (input[2039] >= 0.038234137) {
                                                                var7 = -0.036049515;
                                                            } else {
                                                                if (input[1972] >= 0.002471712) {
                                                                    var7 = -0.31693643;
                                                                } else {
                                                                    var7 = -0.10865136;
                                                                }
                                                            }
                                                        } else {
                                                            var7 = 0.0011415903;
                                                        }
                                                    } else {
                                                        var7 = 0.03646683;
                                                    }
                                                } else {
                                                    var7 = 0.008833625;
                                                }
                                            } else {
                                                if (input[2541] >= 0.029213432) {
                                                    var7 = -0.20006637;
                                                } else {
                                                    var7 = 0.20599748;
                                                }
                                            }
                                        } else {
                                            var7 = 0.10591791;
                                        }
                                    }
                                }
                            } else {
                                if (input[949] >= 0.00014440595) {
                                    var7 = -0.12129473;
                                } else {
                                    var7 = 0.25718114;
                                }
                            }
                        } else {
                            if (input[648] >= 0.09423828) {
                                if (input[898] >= 0.24707031) {
                                    var7 = -0.034752734;
                                } else {
                                    var7 = 0.39033085;
                                }
                            } else {
                                if (input[525] >= 0.09814453) {
                                    if (input[1912] >= 0.00005427026) {
                                        var7 = 0.013801152;
                                    } else {
                                        var7 = 0.25927308;
                                    }
                                } else {
                                    if (input[797] >= 0.036132812) {
                                        if (input[312] >= 0.09375) {
                                            var7 = -0.018639218;
                                        } else {
                                            var7 = -0.27762264;
                                        }
                                    } else {
                                        var7 = 0.10867769;
                                    }
                                }
                            }
                        }
                    }
                }
            } else {
                if (input[2677] >= 0.00259132) {
                    if (input[2573] >= 0.074992895) {
                        var7 = 0.021189615;
                    } else {
                        if (input[510] >= 0.14501953) {
                            var7 = -0.014426277;
                        } else {
                            if (input[770] >= 0.10107422) {
                                var7 = -0.078567475;
                            } else {
                                if (input[515] >= 0.14208984) {
                                    var7 = -0.09179674;
                                } else {
                                    var7 = -0.3175754;
                                }
                            }
                        }
                    }
                } else {
                    var7 = 0.1671117;
                }
            }
        }
    }
    double var8;
    if (input[766] >= 0.09033203) {
        if (input[1018] >= 0.00020212897) {
            if (input[828] >= 0.25830078) {
                if (input[836] >= 0.25634766) {
                    var8 = -0.17914632;
                } else {
                    var8 = 0.060547344;
                }
            } else {
                if (input[756] >= 0.08642578) {
                    if (input[1769] >= 0.04006984) {
                        var8 = 0.038441014;
                    } else {
                        var8 = 0.29939637;
                    }
                } else {
                    if (input[1969] >= 0.00814441) {
                        if (input[2020] >= 0.024046354) {
                            var8 = 0.11906021;
                        } else {
                            var8 = -0.20834213;
                        }
                    } else {
                        if (input[95] >= 0.05810547) {
                            var8 = 0.23909526;
                        } else {
                            var8 = 0.03128632;
                        }
                    }
                }
            }
        } else {
            var8 = -0.25704134;
        }
    } else {
        if (input[2010] >= 0.025444642) {
            if (input[1009] >= 0.0057203965) {
                if (input[1408] >= 0.1881864) {
                    var8 = 0.017567223;
                } else {
                    var8 = -0.24000579;
                }
            } else {
                if (input[2014] >= 0.02211298) {
                    if (input[897] >= 0.037597656) {
                        var8 = 0.30712715;
                    } else {
                        var8 = 0.07649409;
                    }
                } else {
                    if (input[1800] >= 0.0068933573) {
                        var8 = -0.15133548;
                    } else {
                        var8 = 0.19086356;
                    }
                }
            }
        } else {
            if (input[1967] >= 0.00042152766) {
                if (input[808] >= 0.044433594) {
                    if (input[2108] >= 0.047907088) {
                        if (input[1288] >= 0.14523652) {
                            var8 = 0.24682489;
                        } else {
                            var8 = 0.011784964;
                        }
                    } else {
                        if (input[2485] >= 0.017130647) {
                            if (input[782] >= 0.080566406) {
                                if (input[775] >= 0.076660156) {
                                    var8 = 0.21220973;
                                } else {
                                    if (input[763] >= 0.076660156) {
                                        var8 = 0.08920083;
                                    } else {
                                        var8 = -0.22739314;
                                    }
                                }
                            } else {
                                if (input[2106] >= 0.05210399) {
                                    var8 = 0.118031256;
                                } else {
                                    if (input[2538] >= 0.018332776) {
                                        if (input[491] >= 0.04736328) {
                                            if (input[2594] >= 0.017430844) {
                                                if (input[541] >= 0.12939453) {
                                                    if (input[410] >= 0.111816406) {
                                                        var8 = 0.116814174;
                                                    } else {
                                                        var8 = -0.16259581;
                                                    }
                                                } else {
                                                    if (input[493] >= 0.05029297) {
                                                        if (input[2097] >= 0.04893826) {
                                                            var8 = -0.071710326;
                                                        } else {
                                                            if (input[769] >= 0.09716797) {
                                                                var8 = -0.08725519;
                                                            } else {
                                                                var8 = -0.31073856;
                                                            }
                                                        }
                                                    } else {
                                                        var8 = -0.016272495;
                                                    }
                                                }
                                            } else {
                                                var8 = 0.07897603;
                                            }
                                        } else {
                                            var8 = 0.06233931;
                                        }
                                    } else {
                                        if (input[1757] >= 0.00029068155) {
                                            var8 = 0.22188078;
                                        } else {
                                            var8 = -0.16896224;
                                        }
                                    }
                                }
                            }
                        } else {
                            if (input[998] >= 0.00014529361) {
                                var8 = -0.066442534;
                            } else {
                                var8 = 0.24071325;
                            }
                        }
                    }
                } else {
                    if (input[2768] >= 0.000065090455) {
                        if (input[2677] >= 0.027278606) {
                            if (input[2330] >= 0.04881282) {
                                var8 = 0.04976243;
                            } else {
                                var8 = -0.19116215;
                            }
                        } else {
                            if (input[1977] >= 0.011609744) {
                                var8 = -0.043492176;
                            } else {
                                if (input[1041] >= 0.025946023) {
                                    if (input[2572] >= 0.03845992) {
                                        var8 = 0.11056782;
                                    } else {
                                        var8 = 0.3986777;
                                    }
                                } else {
                                    var8 = 0.054508407;
                                }
                            }
                        }
                    } else {
                        if (input[743] >= 0.109375) {
                            var8 = 0.11962113;
                        } else {
                            if (input[1011] >= 0.00014118888) {
                                var8 = -0.25366446;
                            } else {
                                var8 = -0.010383107;
                            }
                        }
                    }
                }
            } else {
                if (input[1728] >= 0.006091684) {
                    if (input[2535] >= 0.01498291) {
                        if (input[2253] >= 0.06668524) {
                            var8 = -0.07527367;
                        } else {
                            var8 = -0.310543;
                        }
                    } else {
                        var8 = -0.041861407;
                    }
                } else {
                    var8 = 0.066614285;
                }
            }
        }
    }
    double var9;
    if (input[1966] >= 0.00007313755) {
        if (input[763] >= 0.08935547) {
            if (input[2720] >= 0.00008226506) {
                if (input[1969] >= 0.011096169) {
                    var9 = -0.01294963;
                } else {
                    if (input[1967] >= 0.011871498) {
                        var9 = 0.024079904;
                    } else {
                        var9 = 0.28639528;
                    }
                }
            } else {
                if (input[1501] >= 0.00015604045) {
                    if (input[960] >= 0.00014655138) {
                        var9 = -0.19856198;
                    } else {
                        var9 = -0.027522592;
                    }
                } else {
                    var9 = 0.15545224;
                }
            }
        } else {
            if (input[2106] >= 0.045550995) {
                if (input[1958] >= 0.004937771) {
                    var9 = -0.09827232;
                } else {
                    if (input[1065] >= 0.055425335) {
                        var9 = 0.2813451;
                    } else {
                        var9 = -0.012390624;
                    }
                }
            } else {
                if (input[2131] >= 0.04591634) {
                    if (input[2762] >= 0.0034869374) {
                        if (input[2710] >= 0.025169767) {
                            var9 = 0.13720188;
                        } else {
                            var9 = -0.21158247;
                        }
                    } else {
                        var9 = 0.2552377;
                    }
                } else {
                    if (input[2662] >= 0.019782208) {
                        if (input[544] >= 0.05126953) {
                            if (input[783] >= 0.08642578) {
                                if (input[996] >= 0.00014686564) {
                                    var9 = -0.13550259;
                                } else {
                                    var9 = 0.21939741;
                                }
                            } else {
                                if (input[2664] >= 0.014795995) {
                                    if (input[2114] >= 0.04783898) {
                                        if (input[886] >= 0.063964844) {
                                            var9 = 0.18122706;
                                        } else {
                                            var9 = -0.14232387;
                                        }
                                    } else {
                                        if (input[408] >= 0.13330078) {
                                            var9 = 0.022116622;
                                        } else {
                                            if (input[662] >= 0.05078125) {
                                                if (input[1718] >= 0.17939585) {
                                                    var9 = -0.018396491;
                                                } else {
                                                    if (input[774] >= 0.09326172) {
                                                        var9 = -0.0486037;
                                                    } else {
                                                        var9 = -0.304756;
                                                    }
                                                }
                                            } else {
                                                var9 = 0.011748142;
                                            }
                                        }
                                    }
                                } else {
                                    var9 = 0.07963125;
                                }
                            }
                        } else {
                            if (input[817] >= 0.053710938) {
                                var9 = -0.08014854;
                            } else {
                                var9 = 0.25306946;
                            }
                        }
                    } else {
                        if (input[1751] >= 0.0003158209) {
                            if (input[1982] >= 0.01246576) {
                                var9 = -0.12354142;
                            } else {
                                if (input[2739] >= 0.000061775325) {
                                    var9 = 0.2984416;
                                } else {
                                    var9 = 0.017989255;
                                }
                            }
                        } else {
                            if (input[1926] >= 0.000050846455) {
                                var9 = -0.2757363;
                            } else {
                                var9 = 0.013974891;
                            }
                        }
                    }
                }
            }
        }
    } else {
        if (input[1050] >= 0.088104025) {
            var9 = 0.17832175;
        } else {
            if (input[2256] >= 0.012677075) {
                if (input[783] >= 0.092285156) {
                    var9 = -0.019111287;
                } else {
                    if (input[1113] >= 0.14305548) {
                        var9 = -0.042729035;
                    } else {
                        if (input[770] >= 0.10107422) {
                            var9 = -0.063646644;
                        } else {
                            var9 = -0.30542457;
                        }
                    }
                }
            } else {
                if (input[1785] >= 0.00019034311) {
                    var9 = 0.17691645;
                } else {
                    var9 = -0.14347471;
                }
            }
        }
    }
    double var10;
    if (input[1018] >= 0.0002492933) {
        if (input[769] >= 0.08642578) {
            if (input[1766] >= 0.0002509855) {
                if (input[2745] >= 0.003705562) {
                    var10 = -0.0069294963;
                } else {
                    if (input[890] >= 0.29052734) {
                        var10 = 0.04513984;
                    } else {
                        if (input[1970] >= 0.009927446) {
                            var10 = 0.07942029;
                        } else {
                            var10 = 0.28580737;
                        }
                    }
                }
            } else {
                if (input[540] >= 0.10546875) {
                    if (input[2653] >= 0.00021164212) {
                        var10 = 0.17086332;
                    } else {
                        var10 = -0.04206079;
                    }
                } else {
                    var10 = -0.18713847;
                }
            }
        } else {
            if (input[1138] >= 0.13144343) {
                if (input[1811] >= 0.008626196) {
                    if (input[2712] >= 0.023752484) {
                        var10 = 0.16120037;
                    } else {
                        var10 = -0.21109013;
                    }
                } else {
                    if (input[2087] >= 0.03477771) {
                        var10 = 0.26968434;
                    } else {
                        var10 = 0.041799188;
                    }
                }
            } else {
                if (input[2610] >= 0.016822241) {
                    if (input[1173] >= 0.16073175) {
                        if (input[1847] >= 0.00034818717) {
                            var10 = -0.082211696;
                        } else {
                            if (input[1118] >= 0.08115429) {
                                var10 = 0.24454269;
                            } else {
                                var10 = 0.029094087;
                            }
                        }
                    } else {
                        if (input[950] >= 0.00013088406) {
                            if (input[766] >= 0.088378906) {
                                if (input[620] >= 0.10205078) {
                                    var10 = 0.19341786;
                                } else {
                                    if (input[1088] >= 0.061531477) {
                                        var10 = 0.039905958;
                                    } else {
                                        var10 = -0.20621751;
                                    }
                                }
                            } else {
                                if (input[767] >= 0.04345703) {
                                    if (input[1652] >= 0.04836669) {
                                        if (input[2139] >= 0.050426204) {
                                            var10 = 0.02536715;
                                        } else {
                                            if (input[1874] >= 0.00012519205) {
                                                if (input[2305] >= 0.017362496) {
                                                    if (input[777] >= 0.08935547) {
                                                        var10 = -0.043410584;
                                                    } else {
                                                        if (input[2070] >= 0.04312364) {
                                                            var10 = -0.053712558;
                                                        } else {
                                                            var10 = -0.30132166;
                                                        }
                                                    }
                                                } else {
                                                    var10 = -0.030577188;
                                                }
                                            } else {
                                                var10 = 0.0032079783;
                                            }
                                        }
                                    } else {
                                        var10 = 0.065461144;
                                    }
                                } else {
                                    var10 = 0.069550976;
                                }
                            }
                        } else {
                            if (input[165] >= 0.060058594) {
                                if (input[649] >= 0.106933594) {
                                    var10 = 0.10447722;
                                } else {
                                    if (input[956] >= 0.00013539474) {
                                        var10 = -0.22645177;
                                    } else {
                                        var10 = -0.009195606;
                                    }
                                }
                            } else {
                                var10 = 0.24887614;
                            }
                        }
                    }
                } else {
                    if (input[1759] >= 0.00024052053) {
                        var10 = 0.24490206;
                    } else {
                        var10 = -0.040600814;
                    }
                }
            }
        }
    } else {
        if (input[1994] >= 0.020793833) {
            var10 = -0.0047393194;
        } else {
            var10 = -0.30099612;
        }
    }
    double var11;
    if (input[1018] >= 0.0002492933) {
